
\data\
ngram 1=33

\1-grams:
-0.8809273	</s>
-99	<s>
-1.678973	an-om
-1.428249	ana
-1.707002	ap-at
-1.420695	ayam
-1.485153	basi
-1.476553	buho
-1.665609	daywa
-1.443761	dungok
-1.540671	gaid
-1.420695	haman
-1.521366	hoo
-1.550655	imo
-1.485153	indi
-1.736965	isaea
-1.459847	kaeo
-1.459847	kaon
-1.736965	li-má
-2.883094	muea
-1.502882	mueay
-1.512025	pila
-1.721725	pitó
-1.692762	púeo
-1.46812	rason
-1.530911	saea
-1.652644	siyám
-1.493927	suea
-1.678973	tatlo
-1.443761	tuo
-1.459847	ubos
-1.502882	waea
-1.665609	waeo

\end\
