
\data\
ngram 1=12

\1-grams:
-0.6095204	</s>
-99	<s>
-1.108692	an-om
-1.136721	ap-at
-1.095328	daywa
-1.166684	isaea
-1.166684	li-má
-1.151444	pitó
-1.12248	púeo
-1.082363	siyám
-1.108692	tatlo
-1.095328	waeo

\end\
